digraph Tree {
node [shape=box] ;
0 [label="X[0] <= 1.5\nmse = 915114968.666\nsamples = 397\nvalue = 113706.458"] ;
1 [label="X[1] <= 0.5\nmse = 168552937.034\nsamples = 131\nvalue = 87176.206"] ;
0 -> 1 [labeldistance=2.5, labelangle=45, headlabel="True"] ;
2 [label="X[0] <= 0.5\nmse = 92120497.654\nsamples = 50\nvalue = 78680.84"] ;
1 -> 2 ;
3 [label="X[3] <= 3.0\nmse = 117417390.871\nsamples = 26\nvalue = 83061.115"] ;
2 -> 3 ;
4 [label="X[2] <= 10.5\nmse = 3263442.25\nsamples = 2\nvalue = 106606.5"] ;
3 -> 4 ;
5 [label="mse = 0.0\nsamples = 1\nvalue = 108413.0"] ;
4 -> 5 ;
6 [label="mse = 0.0\nsamples = 1\nvalue = 104800.0"] ;
4 -> 6 ;
7 [label="X[4] <= 0.5\nmse = 76881561.75\nsamples = 24\nvalue = 81099.0"] ;
3 -> 7 ;
8 [label="X[3] <= 15.0\nmse = 30746076.75\nsamples = 4\nvalue = 72128.5"] ;
7 -> 8 ;
9 [label="X[2] <= 11.5\nmse = 1782225.0\nsamples = 2\nvalue = 76165.0"] ;
8 -> 9 ;
10 [label="mse = 0.0\nsamples = 1\nvalue = 77500.0"] ;
9 -> 10 ;
11 [label="mse = 0.0\nsamples = 1\nvalue = 74830.0"] ;
9 -> 11 ;
12 [label="X[3] <= 23.0\nmse = 27123264.0\nsamples = 2\nvalue = 68092.0"] ;
8 -> 12 ;
13 [label="mse = 0.0\nsamples = 1\nvalue = 62884.0"] ;
12 -> 13 ;
14 [label="mse = 0.0\nsamples = 1\nvalue = 73300.0"] ;
12 -> 14 ;
15 [label="X[3] <= 36.0\nmse = 66795889.89\nsamples = 20\nvalue = 82893.1"] ;
7 -> 15 ;
16 [label="X[3] <= 7.5\nmse = 65346911.284\nsamples = 18\nvalue = 83631.222"] ;
15 -> 16 ;
17 [label="X[3] <= 6.5\nmse = 64942783.25\nsamples = 4\nvalue = 79855.5"] ;
16 -> 17 ;
18 [label="X[3] <= 5.5\nmse = 770006.25\nsamples = 2\nvalue = 87772.5"] ;
17 -> 18 ;
19 [label="mse = 0.0\nsamples = 1\nvalue = 86895.0"] ;
18 -> 19 ;
20 [label="mse = 0.0\nsamples = 1\nvalue = 88650.0"] ;
18 -> 20 ;
21 [label="X[2] <= 9.5\nmse = 3757782.25\nsamples = 2\nvalue = 71938.5"] ;
17 -> 21 ;
22 [label="mse = 0.0\nsamples = 1\nvalue = 70000.0"] ;
21 -> 22 ;
23 [label="mse = 0.0\nsamples = 1\nvalue = 73877.0"] ;
21 -> 23 ;
24 [label="X[2] <= 14.5\nmse = 60225449.714\nsamples = 14\nvalue = 84710.0"] ;
16 -> 24 ;
25 [label="X[2] <= 13.5\nmse = 87930383.102\nsamples = 7\nvalue = 87586.429"] ;
24 -> 25 ;
26 [label="X[2] <= 11.5\nmse = 72127760.917\nsamples = 6\nvalue = 85500.5"] ;
25 -> 26 ;
27 [label="X[2] <= 10.5\nmse = 87212608.188\nsamples = 4\nvalue = 87955.25"] ;
26 -> 27 ;
28 [label="mse = 0.0\nsamples = 1\nvalue = 82600.0"] ;
27 -> 28 ;
29 [label="X[3] <= 8.5\nmse = 103537387.556\nsamples = 3\nvalue = 89740.333"] ;
27 -> 29 ;
30 [label="mse = 121242121.0\nsamples = 2\nvalue = 93110.0"] ;
29 -> 30 ;
31 [label="mse = 0.0\nsamples = 1\nvalue = 83001.0"] ;
29 -> 31 ;
32 [label="X[2] <= 12.5\nmse = 5803281.0\nsamples = 2\nvalue = 80591.0"] ;
26 -> 32 ;
33 [label="mse = 0.0\nsamples = 1\nvalue = 83000.0"] ;
32 -> 33 ;
34 [label="mse = 0.0\nsamples = 1\nvalue = 78182.0"] ;
32 -> 34 ;
35 [label="mse = 0.0\nsamples = 1\nvalue = 100102.0"] ;
25 -> 35 ;
36 [label="X[3] <= 28.0\nmse = 15972833.673\nsamples = 7\nvalue = 81833.571"] ;
24 -> 36 ;
37 [label="X[3] <= 20.0\nmse = 9732420.139\nsamples = 6\nvalue = 80705.833"] ;
36 -> 37 ;
38 [label="X[2] <= 16.5\nmse = 886536.0\nsamples = 5\nvalue = 82047.0"] ;
37 -> 38 ;
39 [label="mse = 0.0\nsamples = 2\nvalue = 81500.0"] ;
38 -> 39 ;
40 [label="X[3] <= 13.0\nmse = 1145105.556\nsamples = 3\nvalue = 82411.667"] ;
38 -> 40 ;
41 [label="mse = 0.0\nsamples = 1\nvalue = 83850.0"] ;
40 -> 41 ;
42 [label="X[2] <= 19.5\nmse = 166056.25\nsamples = 2\nvalue = 81692.5"] ;
40 -> 42 ;
43 [label="mse = 0.0\nsamples = 1\nvalue = 82100.0"] ;
42 -> 43 ;
44 [label="mse = 0.0\nsamples = 1\nvalue = 81285.0"] ;
42 -> 44 ;
45 [label="mse = 0.0\nsamples = 1\nvalue = 74000.0"] ;
37 -> 45 ;
46 [label="mse = 0.0\nsamples = 1\nvalue = 88600.0"] ;
36 -> 46 ;
47 [label="X[3] <= 44.0\nmse = 30802500.0\nsamples = 2\nvalue = 76250.0"] ;
15 -> 47 ;
48 [label="mse = 0.0\nsamples = 1\nvalue = 70700.0"] ;
47 -> 48 ;
49 [label="mse = 0.0\nsamples = 1\nvalue = 81800.0"] ;
47 -> 49 ;
50 [label="X[3] <= 5.5\nmse = 21411960.248\nsamples = 24\nvalue = 73935.542"] ;
2 -> 50 ;
51 [label="X[2] <= 2.5\nmse = 17016232.401\nsamples = 23\nvalue = 74406.652"] ;
50 -> 51 ;
52 [label="X[4] <= 0.5\nmse = 39062500.0\nsamples = 2\nvalue = 78750.0"] ;
51 -> 52 ;
53 [label="mse = 0.0\nsamples = 1\nvalue = 72500.0"] ;
52 -> 53 ;
54 [label="mse = 0.0\nsamples = 1\nvalue = 85000.0"] ;
52 -> 54 ;
55 [label="X[2] <= 3.5\nmse = 12948844.476\nsamples = 21\nvalue = 73993.0"] ;
51 -> 55 ;
56 [label="X[4] <= 0.5\nmse = 16435555.556\nsamples = 3\nvalue = 69633.333"] ;
55 -> 56 ;
57 [label="mse = 0.0\nsamples = 1\nvalue = 72500.0"] ;
56 -> 57 ;
58 [label="mse = 18490000.0\nsamples = 2\nvalue = 68200.0"] ;
56 -> 58 ;
59 [label="X[2] <= 5.5\nmse = 8671980.015\nsamples = 18\nvalue = 74719.611"] ;
55 -> 59 ;
60 [label="X[3] <= 2.5\nmse = 4756761.75\nsamples = 8\nvalue = 73444.5"] ;
59 -> 60 ;
61 [label="X[4] <= 0.5\nmse = 2851768.889\nsamples = 6\nvalue = 74142.667"] ;
60 -> 61 ;
62 [label="mse = 0.0\nsamples = 1\nvalue = 77500.0"] ;
61 -> 62 ;
63 [label="X[3] <= 0.5\nmse = 716917.76\nsamples = 5\nvalue = 73471.2"] ;
61 -> 63 ;
64 [label="mse = 0.0\nsamples = 1\nvalue = 74000.0"] ;
63 -> 64 ;
65 [label="X[3] <= 1.5\nmse = 808763.0\nsamples = 4\nvalue = 73339.0"] ;
63 -> 65 ;
66 [label="mse = 1027274.667\nsamples = 3\nvalue = 73452.0"] ;
65 -> 66 ;
67 [label="mse = 0.0\nsamples = 1\nvalue = 73000.0"] ;
65 -> 67 ;
68 [label="X[4] <= 0.5\nmse = 4622500.0\nsamples = 2\nvalue = 71350.0"] ;
60 -> 68 ;
69 [label="mse = 0.0\nsamples = 1\nvalue = 73500.0"] ;
68 -> 69 ;
70 [label="mse = 0.0\nsamples = 1\nvalue = 69200.0"] ;
68 -> 70 ;
71 [label="X[2] <= 10.0\nmse = 9462846.61\nsamples = 10\nvalue = 75739.7"] ;
59 -> 71 ;
72 [label="X[4] <= 0.5\nmse = 9369354.0\nsamples = 9\nvalue = 75401.333"] ;
71 -> 72 ;
73 [label="mse = 0.0\nsamples = 1\nvalue = 78500.0"] ;
72 -> 73 ;
74 [label="X[3] <= 3.5\nmse = 9190279.25\nsamples = 8\nvalue = 75014.0"] ;
72 -> 74 ;
75 [label="X[2] <= 7.0\nmse = 7980836.188\nsamples = 4\nvalue = 74144.25"] ;
74 -> 75 ;
76 [label="mse = 0.0\nsamples = 1\nvalue = 77081.0"] ;
75 -> 76 ;
77 [label="X[2] <= 8.5\nmse = 6808003.556\nsamples = 3\nvalue = 73165.333"] ;
75 -> 77 ;
78 [label="mse = 9909904.0\nsamples = 2\nvalue = 72848.0"] ;
77 -> 78 ;
79 [label="mse = 0.0\nsamples = 1\nvalue = 73800.0"] ;
77 -> 79 ;
80 [label="X[3] <= 4.5\nmse = 8886792.188\nsamples = 4\nvalue = 75883.75"] ;
74 -> 80 ;
81 [label="X[2] <= 7.5\nmse = 10271938.889\nsamples = 3\nvalue = 76511.667"] ;
80 -> 81 ;
82 [label="mse = 0.0\nsamples = 1\nvalue = 74500.0"] ;
81 -> 82 ;
83 [label="mse = 12372806.25\nsamples = 2\nvalue = 77517.5"] ;
81 -> 83 ;
84 [label="mse = 0.0\nsamples = 1\nvalue = 74000.0"] ;
80 -> 84 ;
85 [label="mse = 0.0\nsamples = 1\nvalue = 78785.0"] ;
71 -> 85 ;
86 [label="mse = 0.0\nsamples = 1\nvalue = 63100.0"] ;
50 -> 86 ;
87 [label="X[0] <= 0.5\nmse = 143683210.291\nsamples = 81\nvalue = 92420.259"] ;
1 -> 87 ;
88 [label="X[3] <= 3.0\nmse = 102051154.713\nsamples = 38\nvalue = 101276.395"] ;
87 -> 88 ;
89 [label="mse = 0.0\nsamples = 1\nvalue = 118700.0"] ;
88 -> 89 ;
90 [label="X[3] <= 5.5\nmse = 96382619.98\nsamples = 37\nvalue = 100805.486"] ;
88 -> 90 ;
91 [label="mse = 0.0\nsamples = 1\nvalue = 83900.0"] ;
90 -> 91 ;
92 [label="X[3] <= 18.5\nmse = 90900630.632\nsamples = 36\nvalue = 101275.083"] ;
90 -> 92 ;
93 [label="X[3] <= 10.5\nmse = 90183857.205\nsamples = 31\nvalue = 102083.387"] ;
92 -> 93 ;
94 [label="X[3] <= 7.5\nmse = 76495895.09\nsamples = 26\nvalue = 100839.577"] ;
93 -> 94 ;
95 [label="X[2] <= 7.0\nmse = 29145166.864\nsamples = 13\nvalue = 103482.538"] ;
94 -> 95 ;
96 [label="mse = 633616.0\nsamples = 2\nvalue = 96204.0"] ;
95 -> 96 ;
97 [label="X[2] <= 20.5\nmse = 22945571.355\nsamples = 11\nvalue = 104805.909"] ;
95 -> 97 ;
98 [label="X[2] <= 8.5\nmse = 20879896.65\nsamples = 10\nvalue = 105435.5"] ;
97 -> 98 ;
99 [label="mse = 0.0\nsamples = 1\nvalue = 101210.0"] ;
98 -> 99 ;
100 [label="X[2] <= 9.5\nmse = 20995582.667\nsamples = 9\nvalue = 105905.0"] ;
98 -> 100 ;
101 [label="mse = 10863616.0\nsamples = 2\nvalue = 110304.0"] ;
100 -> 101 ;
102 [label="X[2] <= 11.5\nmse = 16781825.837\nsamples = 7\nvalue = 104648.143"] ;
100 -> 102 ;
103 [label="mse = 22013988.667\nsamples = 3\nvalue = 102065.0"] ;
102 -> 103 ;
104 [label="X[2] <= 15.5\nmse = 4099880.75\nsamples = 4\nvalue = 106585.5"] ;
102 -> 104 ;
105 [label="X[3] <= 6.5\nmse = 1562500.0\nsamples = 2\nvalue = 108400.0"] ;
104 -> 105 ;
106 [label="mse = 0.0\nsamples = 1\nvalue = 107150.0"] ;
105 -> 106 ;
107 [label="mse = 0.0\nsamples = 1\nvalue = 109650.0"] ;
105 -> 107 ;
108 [label="X[2] <= 18.0\nmse = 52441.0\nsamples = 2\nvalue = 104771.0"] ;
104 -> 108 ;
109 [label="mse = 0.0\nsamples = 1\nvalue = 105000.0"] ;
108 -> 109 ;
110 [label="mse = 0.0\nsamples = 1\nvalue = 104542.0"] ;
108 -> 110 ;
111 [label="mse = 0.0\nsamples = 1\nvalue = 98510.0"] ;
97 -> 111 ;
112 [label="X[4] <= 0.5\nmse = 109876131.929\nsamples = 13\nvalue = 98196.615"] ;
94 -> 112 ;
113 [label="X[3] <= 9.5\nmse = 239187533.556\nsamples = 3\nvalue = 92936.333"] ;
112 -> 113 ;
114 [label="mse = 0.0\nsamples = 1\nvalue = 71065.0"] ;
113 -> 114 ;
115 [label="X[2] <= 12.5\nmse = 14884.0\nsamples = 2\nvalue = 103872.0"] ;
113 -> 115 ;
116 [label="mse = 0.0\nsamples = 1\nvalue = 103994.0"] ;
115 -> 116 ;
117 [label="mse = 0.0\nsamples = 1\nvalue = 103750.0"] ;
115 -> 117 ;
118 [label="X[2] <= 11.0\nmse = 60291190.21\nsamples = 10\nvalue = 99774.7"] ;
112 -> 118 ;
119 [label="X[3] <= 8.5\nmse = 18047576.984\nsamples = 8\nvalue = 97125.375"] ;
118 -> 119 ;
120 [label="X[2] <= 8.5\nmse = 25042551.188\nsamples = 4\nvalue = 95260.25"] ;
119 -> 120 ;
121 [label="mse = 0.0\nsamples = 1\nvalue = 100000.0"] ;
120 -> 121 ;
122 [label="mse = 23405521.556\nsamples = 3\nvalue = 93680.333"] ;
120 -> 122 ;
123 [label="X[2] <= 9.5\nmse = 4095220.25\nsamples = 4\nvalue = 98990.5"] ;
119 -> 123 ;
124 [label="mse = 7011904.0\nsamples = 2\nvalue = 98290.0"] ;
123 -> 124 ;
125 [label="X[3] <= 9.5\nmse = 197136.0\nsamples = 2\nvalue = 99691.0"] ;
123 -> 125 ;
126 [label="mse = 0.0\nsamples = 1\nvalue = 100135.0"] ;
125 -> 126 ;
127 [label="mse = 0.0\nsamples = 1\nvalue = 99247.0"] ;
125 -> 127 ;
128 [label="X[3] <= 8.5\nmse = 88887184.0\nsamples = 2\nvalue = 110372.0"] ;
118 -> 128 ;
129 [label="mse = 0.0\nsamples = 1\nvalue = 119800.0"] ;
128 -> 129 ;
130 [label="mse = 0.0\nsamples = 1\nvalue = 100944.0"] ;
128 -> 130 ;
131 [label="X[2] <= 15.0\nmse = 111483924.96\nsamples = 5\nvalue = 108551.2"] ;
93 -> 131 ;
132 [label="X[2] <= 12.5\nmse = 87027163.688\nsamples = 4\nvalue = 111786.25"] ;
131 -> 132 ;
133 [label="X[3] <= 14.5\nmse = 20716794.889\nsamples = 3\nvalue = 106904.667"] ;
132 -> 133 ;
134 [label="X[2] <= 11.5\nmse = 5402.25\nsamples = 2\nvalue = 103686.5"] ;
133 -> 134 ;
135 [label="mse = 0.0\nsamples = 1\nvalue = 103613.0"] ;
134 -> 135 ;
136 [label="mse = 0.0\nsamples = 1\nvalue = 103760.0"] ;
134 -> 136 ;
137 [label="mse = 0.0\nsamples = 1\nvalue = 113341.0"] ;
133 -> 137 ;
138 [label="mse = 0.0\nsamples = 1\nvalue = 126431.0"] ;
132 -> 138 ;
139 [label="mse = 0.0\nsamples = 1\nvalue = 95611.0"] ;
131 -> 139 ;
140 [label="X[2] <= 25.5\nmse = 66178859.84\nsamples = 5\nvalue = 96263.6"] ;
92 -> 140 ;
141 [label="X[2] <= 21.0\nmse = 12845056.0\nsamples = 2\nvalue = 89834.0"] ;
140 -> 141 ;
142 [label="mse = 0.0\nsamples = 1\nvalue = 86250.0"] ;
141 -> 142 ;
143 [label="mse = 0.0\nsamples = 1\nvalue = 93418.0"] ;
141 -> 143 ;
144 [label="X[3] <= 40.5\nmse = 55801666.667\nsamples = 3\nvalue = 100550.0"] ;
140 -> 144 ;
145 [label="X[3] <= 25.0\nmse = 225625.0\nsamples = 2\nvalue = 105825.0"] ;
144 -> 145 ;
146 [label="mse = 0.0\nsamples = 1\nvalue = 105350.0"] ;
145 -> 146 ;
147 [label="mse = 0.0\nsamples = 1\nvalue = 106300.0"] ;
145 -> 147 ;
148 [label="mse = 0.0\nsamples = 1\nvalue = 90000.0"] ;
144 -> 148 ;
149 [label="X[3] <= 3.5\nmse = 49911303.015\nsamples = 43\nvalue = 84593.907"] ;
87 -> 149 ;
150 [label="X[2] <= 7.5\nmse = 45450235.692\nsamples = 34\nvalue = 82853.118"] ;
149 -> 150 ;
151 [label="X[2] <= 1.5\nmse = 43398951.767\nsamples = 29\nvalue = 83910.483"] ;
150 -> 151 ;
152 [label="X[3] <= 0.5\nmse = 56236764.188\nsamples = 4\nvalue = 81315.75"] ;
151 -> 152 ;
153 [label="mse = 158006.25\nsamples = 2\nvalue = 88397.5"] ;
152 -> 153 ;
154 [label="mse = 12013156.0\nsamples = 2\nvalue = 74234.0"] ;
152 -> 154 ;
155 [label="X[2] <= 3.5\nmse = 40095324.15\nsamples = 25\nvalue = 84325.64"] ;
151 -> 155 ;
156 [label="X[3] <= 2.5\nmse = 33095090.859\nsamples = 8\nvalue = 86142.875"] ;
155 -> 156 ;
157 [label="X[3] <= 0.5\nmse = 33075737.76\nsamples = 5\nvalue = 83451.8"] ;
156 -> 157 ;
158 [label="mse = 0.0\nsamples = 1\nvalue = 78000.0"] ;
157 -> 158 ;
159 [label="X[2] <= 2.5\nmse = 32056508.688\nsamples = 4\nvalue = 84814.75"] ;
157 -> 159 ;
160 [label="mse = 311364.0\nsamples = 2\nvalue = 88958.0"] ;
159 -> 160 ;
161 [label="X[3] <= 1.5\nmse = 29468612.25\nsamples = 2\nvalue = 80671.5"] ;
159 -> 161 ;
162 [label="mse = 0.0\nsamples = 1\nvalue = 86100.0"] ;
161 -> 162 ;
163 [label="mse = 0.0\nsamples = 1\nvalue = 75243.0"] ;
161 -> 163 ;
164 [label="X[4] <= 0.5\nmse = 941192.0\nsamples = 3\nvalue = 90628.0"] ;
156 -> 164 ;
165 [label="mse = 0.0\nsamples = 1\nvalue = 92000.0"] ;
164 -> 165 ;
166 [label="mse = 0.0\nsamples = 2\nvalue = 89942.0"] ;
164 -> 166 ;
167 [label="X[4] <= 0.5\nmse = 41104193.073\nsamples = 17\nvalue = 83470.471"] ;
155 -> 167 ;
168 [label="X[3] <= 1.0\nmse = 2600156.25\nsamples = 2\nvalue = 78612.5"] ;
167 -> 168 ;
169 [label="mse = 0.0\nsamples = 1\nvalue = 77000.0"] ;
168 -> 169 ;
170 [label="mse = 0.0\nsamples = 1\nvalue = 80225.0"] ;
168 -> 170 ;
171 [label="X[3] <= 1.0\nmse = 42671860.827\nsamples = 15\nvalue = 84118.2"] ;
167 -> 171 ;
172 [label="mse = 16000000.0\nsamples = 2\nvalue = 88000.0"] ;
171 -> 172 ;
173 [label="X[2] <= 5.5\nmse = 44100365.231\nsamples = 13\nvalue = 83521.0"] ;
171 -> 173 ;
174 [label="X[3] <= 2.5\nmse = 63923759.837\nsamples = 7\nvalue = 82425.143"] ;
173 -> 174 ;
175 [label="mse = 0.0\nsamples = 1\nvalue = 80225.0"] ;
174 -> 175 ;
176 [label="X[2] <= 4.5\nmse = 73636486.472\nsamples = 6\nvalue = 82791.833"] ;
174 -> 176 ;
177 [label="mse = 88322880.24\nsamples = 5\nvalue = 82874.4"] ;
176 -> 177 ;
178 [label="mse = 0.0\nsamples = 1\nvalue = 82379.0"] ;
176 -> 178 ;
179 [label="X[2] <= 6.5\nmse = 17937455.917\nsamples = 6\nvalue = 84799.5"] ;
173 -> 179 ;
180 [label="X[3] <= 2.5\nmse = 4236964.667\nsamples = 3\nvalue = 85927.0"] ;
179 -> 180 ;
181 [label="mse = 5255556.25\nsamples = 2\nvalue = 86532.5"] ;
180 -> 181 ;
182 [label="mse = 0.0\nsamples = 1\nvalue = 84716.0"] ;
180 -> 182 ;
183 [label="mse = 29095434.667\nsamples = 3\nvalue = 83672.0"] ;
179 -> 183 ;
184 [label="X[3] <= 2.0\nmse = 13252935.04\nsamples = 5\nvalue = 76720.4"] ;
150 -> 184 ;
185 [label="X[3] <= 0.5\nmse = 10890000.0\nsamples = 2\nvalue = 80300.0"] ;
184 -> 185 ;
186 [label="mse = 0.0\nsamples = 1\nvalue = 77000.0"] ;
185 -> 186 ;
187 [label="mse = 0.0\nsamples = 1\nvalue = 83600.0"] ;
185 -> 187 ;
188 [label="X[2] <= 9.5\nmse = 590962.667\nsamples = 3\nvalue = 74334.0"] ;
184 -> 188 ;
189 [label="mse = 790321.0\nsamples = 2\nvalue = 74155.0"] ;
188 -> 189 ;
190 [label="mse = 0.0\nsamples = 1\nvalue = 74692.0"] ;
188 -> 190 ;
191 [label="X[2] <= 9.0\nmse = 12068322.395\nsamples = 9\nvalue = 91170.222"] ;
149 -> 191 ;
192 [label="X[2] <= 6.0\nmse = 8744926.0\nsamples = 8\nvalue = 90437.5"] ;
191 -> 192 ;
193 [label="X[3] <= 4.5\nmse = 252001.25\nsamples = 6\nvalue = 92104.5"] ;
192 -> 193 ;
194 [label="mse = 117600.0\nsamples = 5\nvalue = 92280.0"] ;
193 -> 194 ;
195 [label="mse = 0.0\nsamples = 1\nvalue = 91227.0"] ;
193 -> 195 ;
196 [label="X[2] <= 7.5\nmse = 877032.25\nsamples = 2\nvalue = 85436.5"] ;
192 -> 196 ;
197 [label="mse = 0.0\nsamples = 1\nvalue = 86373.0"] ;
196 -> 197 ;
198 [label="mse = 0.0\nsamples = 1\nvalue = 84500.0"] ;
196 -> 198 ;
199 [label="mse = 0.0\nsamples = 1\nvalue = 97032.0"] ;
191 -> 199 ;
200 [label="X[1] <= 0.5\nmse = 765436504.06\nsamples = 266\nvalue = 126772.109"] ;
0 -> 200 [labeldistance=2.5, labelangle=-45, headlabel="False"] ;
201 [label="X[2] <= 46.5\nmse = 775802543.054\nsamples = 131\nvalue = 119948.275"] ;
200 -> 201 ;
202 [label="X[2] <= 26.0\nmse = 719783050.602\nsamples = 124\nvalue = 122117.444"] ;
201 -> 202 ;
203 [label="X[2] <= 19.5\nmse = 316835934.515\nsamples = 42\nvalue = 112132.238"] ;
202 -> 203 ;
204 [label="X[3] <= 20.5\nmse = 191698872.372\nsamples = 21\nvalue = 107532.238"] ;
203 -> 204 ;
205 [label="X[3] <= 6.5\nmse = 172881727.76\nsamples = 20\nvalue = 108695.2"] ;
204 -> 205 ;
206 [label="X[3] <= 5.0\nmse = 29008675.0\nsamples = 4\nvalue = 99865.0"] ;
205 -> 206 ;
207 [label="X[2] <= 13.0\nmse = 16900.0\nsamples = 2\nvalue = 105130.0"] ;
206 -> 207 ;
208 [label="mse = 0.0\nsamples = 1\nvalue = 105000.0"] ;
207 -> 208 ;
209 [label="mse = 0.0\nsamples = 1\nvalue = 105260.0"] ;
207 -> 209 ;
210 [label="X[2] <= 15.5\nmse = 2560000.0\nsamples = 2\nvalue = 94600.0"] ;
206 -> 210 ;
211 [label="mse = 0.0\nsamples = 1\nvalue = 93000.0"] ;
210 -> 211 ;
212 [label="mse = 0.0\nsamples = 1\nvalue = 96200.0"] ;
210 -> 212 ;
213 [label="X[4] <= 0.5\nmse = 184483605.938\nsamples = 16\nvalue = 110902.75"] ;
205 -> 213 ;
214 [label="mse = 0.0\nsamples = 1\nvalue = 90450.0"] ;
213 -> 214 ;
215 [label="X[2] <= 16.5\nmse = 167035669.796\nsamples = 15\nvalue = 112266.267"] ;
213 -> 215 ;
216 [label="X[2] <= 15.5\nmse = 76247211.56\nsamples = 10\nvalue = 108931.8"] ;
215 -> 216 ;
217 [label="X[3] <= 10.5\nmse = 34223917.359\nsamples = 8\nvalue = 111610.125"] ;
216 -> 217 ;
218 [label="X[2] <= 14.5\nmse = 20066998.889\nsamples = 6\nvalue = 109270.333"] ;
217 -> 218 ;
219 [label="X[2] <= 12.5\nmse = 6325559.188\nsamples = 4\nvalue = 106464.25"] ;
218 -> 219 ;
220 [label="mse = 0.0\nsamples = 1\nvalue = 109707.0"] ;
219 -> 220 ;
221 [label="X[3] <= 8.0\nmse = 3760555.556\nsamples = 3\nvalue = 105383.333"] ;
219 -> 221 ;
222 [label="mse = 0.0\nsamples = 1\nvalue = 103700.0"] ;
221 -> 222 ;
223 [label="X[3] <= 9.5\nmse = 3515625.0\nsamples = 2\nvalue = 106225.0"] ;
221 -> 223 ;
224 [label="mse = 0.0\nsamples = 1\nvalue = 108100.0"] ;
223 -> 224 ;
225 [label="mse = 0.0\nsamples = 1\nvalue = 104350.0"] ;
223 -> 225 ;
226 [label="X[3] <= 9.5\nmse = 305256.25\nsamples = 2\nvalue = 114882.5"] ;
218 -> 226 ;
227 [label="mse = 0.0\nsamples = 1\nvalue = 114330.0"] ;
226 -> 227 ;
228 [label="mse = 0.0\nsamples = 1\nvalue = 115435.0"] ;
226 -> 228 ;
229 [label="X[3] <= 12.5\nmse = 10999172.25\nsamples = 2\nvalue = 118629.5"] ;
217 -> 229 ;
230 [label="mse = 0.0\nsamples = 1\nvalue = 121946.0"] ;
229 -> 230 ;
231 [label="mse = 0.0\nsamples = 1\nvalue = 115313.0"] ;
229 -> 231 ;
232 [label="X[3] <= 12.5\nmse = 100871892.25\nsamples = 2\nvalue = 98218.5"] ;
216 -> 232 ;
233 [label="mse = 0.0\nsamples = 1\nvalue = 88175.0"] ;
232 -> 233 ;
234 [label="mse = 0.0\nsamples = 1\nvalue = 108262.0"] ;
232 -> 234 ;
235 [label="X[2] <= 18.5\nmse = 281900578.56\nsamples = 5\nvalue = 118935.2"] ;
215 -> 235 ;
236 [label="X[3] <= 12.5\nmse = 310255427.556\nsamples = 3\nvalue = 126922.667"] ;
235 -> 236 ;
237 [label="mse = 0.0\nsamples = 1\nvalue = 148800.0"] ;
236 -> 237 ;
238 [label="X[2] <= 17.5\nmse = 106419856.0\nsamples = 2\nvalue = 115984.0"] ;
236 -> 238 ;
239 [label="mse = 0.0\nsamples = 1\nvalue = 105668.0"] ;
238 -> 239 ;
240 [label="mse = 0.0\nsamples = 1\nvalue = 126300.0"] ;
238 -> 240 ;
241 [label="X[3] <= 9.0\nmse = 119716.0\nsamples = 2\nvalue = 106954.0"] ;
235 -> 241 ;
242 [label="mse = 0.0\nsamples = 1\nvalue = 107300.0"] ;
241 -> 242 ;
243 [label="mse = 0.0\nsamples = 1\nvalue = 106608.0"] ;
241 -> 243 ;
244 [label="mse = 0.0\nsamples = 1\nvalue = 84273.0"] ;
204 -> 244 ;
245 [label="X[2] <= 22.5\nmse = 399652996.658\nsamples = 21\nvalue = 116732.238"] ;
203 -> 245 ;
246 [label="X[2] <= 21.5\nmse = 505088574.021\nsamples = 12\nvalue = 124970.25"] ;
245 -> 246 ;
247 [label="X[3] <= 8.5\nmse = 322948883.111\nsamples = 9\nvalue = 116193.667"] ;
246 -> 247 ;
248 [label="X[3] <= 7.5\nmse = 35592496.889\nsamples = 3\nvalue = 100114.667"] ;
247 -> 248 ;
249 [label="mse = 0.0\nsamples = 1\nvalue = 92050.0"] ;
248 -> 249 ;
250 [label="X[2] <= 20.5\nmse = 4609609.0\nsamples = 2\nvalue = 104147.0"] ;
248 -> 250 ;
251 [label="mse = 0.0\nsamples = 1\nvalue = 102000.0"] ;
250 -> 251 ;
252 [label="mse = 0.0\nsamples = 1\nvalue = 106294.0"] ;
250 -> 252 ;
253 [label="X[3] <= 17.0\nmse = 272726395.472\nsamples = 6\nvalue = 124233.167"] ;
247 -> 253 ;
254 [label="X[2] <= 20.5\nmse = 17543532.25\nsamples = 2\nvalue = 116617.5"] ;
253 -> 254 ;
255 [label="mse = 0.0\nsamples = 1\nvalue = 112429.0"] ;
254 -> 255 ;
256 [label="mse = 0.0\nsamples = 1\nvalue = 120806.0"] ;
254 -> 256 ;
257 [label="X[3] <= 19.0\nmse = 356819043.0\nsamples = 4\nvalue = 128041.0"] ;
253 -> 257 ;
258 [label="X[2] <= 20.5\nmse = 461616110.222\nsamples = 3\nvalue = 129921.333"] ;
257 -> 258 ;
259 [label="mse = 0.0\nsamples = 1\nvalue = 136000.0"] ;
258 -> 259 ;
260 [label="mse = 664711524.0\nsamples = 2\nvalue = 126882.0"] ;
258 -> 260 ;
261 [label="mse = 0.0\nsamples = 1\nvalue = 122400.0"] ;
257 -> 261 ;
262 [label="X[3] <= 18.5\nmse = 127166666.667\nsamples = 3\nvalue = 151300.0"] ;
246 -> 262 ;
263 [label="X[3] <= 10.5\nmse = 100000000.0\nsamples = 2\nvalue = 156800.0"] ;
262 -> 263 ;
264 [label="mse = 0.0\nsamples = 1\nvalue = 146800.0"] ;
263 -> 264 ;
265 [label="mse = 0.0\nsamples = 1\nvalue = 166800.0"] ;
263 -> 265 ;
266 [label="mse = 0.0\nsamples = 1\nvalue = 140300.0"] ;
262 -> 266 ;
267 [label="X[3] <= 24.0\nmse = 47937168.617\nsamples = 9\nvalue = 105748.222"] ;
245 -> 267 ;
268 [label="X[2] <= 23.5\nmse = 44353900.188\nsamples = 8\nvalue = 104716.75"] ;
267 -> 268 ;
269 [label="X[3] <= 21.5\nmse = 911700.222\nsamples = 3\nvalue = 109453.667"] ;
268 -> 269 ;
270 [label="X[3] <= 17.5\nmse = 188790.25\nsamples = 2\nvalue = 110080.5"] ;
269 -> 270 ;
271 [label="mse = 0.0\nsamples = 1\nvalue = 109646.0"] ;
270 -> 271 ;
272 [label="mse = 0.0\nsamples = 1\nvalue = 110515.0"] ;
270 -> 272 ;
273 [label="mse = 0.0\nsamples = 1\nvalue = 108200.0"] ;
269 -> 273 ;
274 [label="X[3] <= 20.5\nmse = 48878375.84\nsamples = 5\nvalue = 101874.6"] ;
268 -> 274 ;
275 [label="X[2] <= 24.5\nmse = 54316176.222\nsamples = 3\nvalue = 105165.667"] ;
274 -> 275 ;
276 [label="X[3] <= 18.5\nmse = 8904256.0\nsamples = 2\nvalue = 110084.0"] ;
275 -> 276 ;
277 [label="mse = 0.0\nsamples = 1\nvalue = 107100.0"] ;
276 -> 277 ;
278 [label="mse = 0.0\nsamples = 1\nvalue = 113068.0"] ;
276 -> 278 ;
279 [label="mse = 0.0\nsamples = 1\nvalue = 95329.0"] ;
275 -> 279 ;
280 [label="mse = 104976.0\nsamples = 2\nvalue = 96938.0"] ;
274 -> 280 ;
281 [label="mse = 0.0\nsamples = 1\nvalue = 114000.0"] ;
267 -> 281 ;
282 [label="X[3] <= 13.5\nmse = 848945710.906\nsamples = 82\nvalue = 127231.817"] ;
202 -> 282 ;
283 [label="X[4] <= 0.5\nmse = 904713680.556\nsamples = 6\nvalue = 163541.667"] ;
282 -> 283 ;
284 [label="mse = 0.0\nsamples = 1\nvalue = 116450.0"] ;
283 -> 284 ;
285 [label="X[3] <= 10.5\nmse = 553426400.0\nsamples = 5\nvalue = 172960.0"] ;
283 -> 285 ;
286 [label="X[2] <= 31.0\nmse = 151642222.222\nsamples = 3\nvalue = 187433.333"] ;
285 -> 286 ;
287 [label="mse = 0.0\nsamples = 1\nvalue = 204000.0"] ;
286 -> 287 ;
288 [label="X[2] <= 36.0\nmse = 21622500.0\nsamples = 2\nvalue = 179150.0"] ;
286 -> 288 ;
289 [label="mse = 0.0\nsamples = 1\nvalue = 174500.0"] ;
288 -> 289 ;
290 [label="mse = 0.0\nsamples = 1\nvalue = 183800.0"] ;
288 -> 290 ;
291 [label="X[3] <= 12.5\nmse = 370562500.0\nsamples = 2\nvalue = 151250.0"] ;
285 -> 291 ;
292 [label="mse = 0.0\nsamples = 1\nvalue = 132000.0"] ;
291 -> 292 ;
293 [label="mse = 0.0\nsamples = 1\nvalue = 170500.0"] ;
291 -> 293 ;
294 [label="X[3] <= 29.5\nmse = 732241150.398\nsamples = 76\nvalue = 124365.25"] ;
282 -> 294 ;
295 [label="X[2] <= 31.5\nmse = 837667035.701\nsamples = 36\nvalue = 130883.722"] ;
294 -> 295 ;
296 [label="X[3] <= 18.0\nmse = 621165307.274\nsamples = 25\nvalue = 123838.92"] ;
295 -> 296 ;
297 [label="X[3] <= 16.5\nmse = 264534567.688\nsamples = 4\nvalue = 107014.75"] ;
296 -> 297 ;
298 [label="X[3] <= 15.5\nmse = 67896504.667\nsamples = 3\nvalue = 115453.0"] ;
297 -> 298 ;
299 [label="X[2] <= 28.5\nmse = 105300.25\nsamples = 2\nvalue = 109629.5"] ;
298 -> 299 ;
300 [label="mse = 0.0\nsamples = 1\nvalue = 109954.0"] ;
299 -> 300 ;
301 [label="mse = 0.0\nsamples = 1\nvalue = 109305.0"] ;
299 -> 301 ;
302 [label="mse = 0.0\nsamples = 1\nvalue = 127100.0"] ;
298 -> 302 ;
303 [label="mse = 0.0\nsamples = 1\nvalue = 81700.0"] ;
297 -> 303 ;
304 [label="X[4] <= 0.5\nmse = 624910687.107\nsamples = 21\nvalue = 127043.524"] ;
296 -> 304 ;
305 [label="mse = 0.0\nsamples = 1\nvalue = 91000.0"] ;
304 -> 305 ;
306 [label="X[3] <= 26.5\nmse = 587951602.01\nsamples = 20\nvalue = 128845.7"] ;
304 -> 306 ;
307 [label="X[2] <= 28.5\nmse = 689892894.059\nsamples = 13\nvalue = 124896.308"] ;
306 -> 307 ;
308 [label="X[3] <= 20.0\nmse = 646136445.806\nsamples = 6\nvalue = 131486.833"] ;
307 -> 308 ;
309 [label="mse = 0.0\nsamples = 1\nvalue = 103275.0"] ;
308 -> 309 ;
310 [label="X[2] <= 27.5\nmse = 584345925.36\nsamples = 5\nvalue = 137129.2"] ;
308 -> 310 ;
311 [label="X[3] <= 22.0\nmse = 559629992.25\nsamples = 2\nvalue = 148848.5"] ;
310 -> 311 ;
312 [label="mse = 0.0\nsamples = 1\nvalue = 125192.0"] ;
311 -> 312 ;
313 [label="mse = 0.0\nsamples = 1\nvalue = 172505.0"] ;
311 -> 313 ;
314 [label="X[3] <= 24.5\nmse = 448221000.222\nsamples = 3\nvalue = 129316.333"] ;
310 -> 314 ;
315 [label="mse = 0.0\nsamples = 1\nvalue = 128800.0"] ;
314 -> 315 ;
316 [label="mse = 672131550.25\nsamples = 2\nvalue = 129574.5"] ;
314 -> 316 ;
317 [label="X[3] <= 21.0\nmse = 658256947.633\nsamples = 7\nvalue = 119247.286"] ;
307 -> 317 ;
318 [label="X[2] <= 29.5\nmse = 711437238.222\nsamples = 3\nvalue = 132068.667"] ;
317 -> 318 ;
319 [label="mse = 0.0\nsamples = 1\nvalue = 94350.0"] ;
318 -> 319 ;
320 [label="X[2] <= 30.5\nmse = 132496.0\nsamples = 2\nvalue = 150928.0"] ;
318 -> 320 ;
321 [label="mse = 0.0\nsamples = 1\nvalue = 151292.0"] ;
320 -> 321 ;
322 [label="mse = 0.0\nsamples = 1\nvalue = 150564.0"] ;
320 -> 322 ;
323 [label="X[3] <= 24.5\nmse = 402612729.688\nsamples = 4\nvalue = 109631.25"] ;
317 -> 323 ;
324 [label="mse = 0.0\nsamples = 1\nvalue = 91100.0"] ;
323 -> 324 ;
325 [label="X[2] <= 30.5\nmse = 384191538.889\nsamples = 3\nvalue = 115808.333"] ;
323 -> 325 ;
326 [label="mse = 0.0\nsamples = 1\nvalue = 136660.0"] ;
325 -> 326 ;
327 [label="mse = 250193306.25\nsamples = 2\nvalue = 105382.5"] ;
325 -> 327 ;
328 [label="X[2] <= 28.5\nmse = 315868755.633\nsamples = 7\nvalue = 136180.286"] ;
306 -> 328 ;
329 [label="mse = 0.0\nsamples = 1\nvalue = 115800.0"] ;
328 -> 329 ;
330 [label="X[3] <= 27.5\nmse = 287749872.667\nsamples = 6\nvalue = 139577.0"] ;
328 -> 330 ;
331 [label="X[2] <= 30.0\nmse = 95959924.667\nsamples = 3\nvalue = 150973.0"] ;
330 -> 331 ;
332 [label="mse = 31815240.25\nsamples = 2\nvalue = 144859.5"] ;
331 -> 332 ;
333 [label="mse = 0.0\nsamples = 1\nvalue = 163200.0"] ;
331 -> 333 ;
334 [label="X[3] <= 28.5\nmse = 219802188.667\nsamples = 3\nvalue = 128181.0"] ;
330 -> 334 ;
335 [label="mse = 20056962.25\nsamples = 2\nvalue = 118021.5"] ;
334 -> 335 ;
336 [label="mse = 0.0\nsamples = 1\nvalue = 148500.0"] ;
334 -> 336 ;
337 [label="X[3] <= 18.5\nmse = 960573323.322\nsamples = 11\nvalue = 146894.636"] ;
295 -> 337 ;
338 [label="X[2] <= 37.5\nmse = 19258932.25\nsamples = 2\nvalue = 190411.5"] ;
337 -> 338 ;
339 [label="mse = 0.0\nsamples = 1\nvalue = 186023.0"] ;
338 -> 339 ;
340 [label="mse = 0.0\nsamples = 1\nvalue = 194800.0"] ;
338 -> 340 ;
341 [label="X[2] <= 35.5\nmse = 655411295.951\nsamples = 9\nvalue = 137224.222"] ;
337 -> 341 ;
342 [label="X[3] <= 24.0\nmse = 252116550.0\nsamples = 3\nvalue = 157340.0"] ;
341 -> 342 ;
343 [label="mse = 0.0\nsamples = 1\nvalue = 134885.0"] ;
342 -> 343 ;
344 [label="X[2] <= 33.5\nmse = 4556.25\nsamples = 2\nvalue = 168567.5"] ;
342 -> 344 ;
345 [label="mse = 0.0\nsamples = 1\nvalue = 168500.0"] ;
344 -> 345 ;
346 [label="mse = 0.0\nsamples = 1\nvalue = 168635.0"] ;
344 -> 346 ;
347 [label="X[3] <= 24.0\nmse = 553575282.222\nsamples = 6\nvalue = 127166.333"] ;
341 -> 347 ;
348 [label="X[2] <= 37.5\nmse = 379840037.5\nsamples = 4\nvalue = 139415.0"] ;
347 -> 348 ;
349 [label="X[4] <= 0.5\nmse = 12942006.25\nsamples = 2\nvalue = 121152.5"] ;
348 -> 349 ;
350 [label="mse = 0.0\nsamples = 1\nvalue = 117555.0"] ;
349 -> 350 ;
351 [label="mse = 0.0\nsamples = 1\nvalue = 124750.0"] ;
349 -> 351 ;
352 [label="X[2] <= 39.0\nmse = 79700256.25\nsamples = 2\nvalue = 157677.5"] ;
348 -> 352 ;
353 [label="mse = 0.0\nsamples = 1\nvalue = 148750.0"] ;
352 -> 353 ;
354 [label="mse = 0.0\nsamples = 1\nvalue = 166605.0"] ;
352 -> 354 ;
355 [label="X[3] <= 26.0\nmse = 866761.0\nsamples = 2\nvalue = 102669.0"] ;
347 -> 355 ;
356 [label="mse = 0.0\nsamples = 1\nvalue = 101738.0"] ;
355 -> 356 ;
357 [label="mse = 0.0\nsamples = 1\nvalue = 103600.0"] ;
355 -> 357 ;
358 [label="X[3] <= 41.5\nmse = 564699132.634\nsamples = 40\nvalue = 118498.625"] ;
294 -> 358 ;
359 [label="X[2] <= 44.5\nmse = 338295439.622\nsamples = 33\nvalue = 114467.879"] ;
358 -> 359 ;
360 [label="X[3] <= 37.5\nmse = 304112671.309\nsamples = 32\nvalue = 115632.438"] ;
359 -> 360 ;
361 [label="X[3] <= 33.0\nmse = 248640665.787\nsamples = 26\nvalue = 112533.538"] ;
360 -> 361 ;
362 [label="X[2] <= 30.5\nmse = 231210912.694\nsamples = 14\nvalue = 118669.143"] ;
361 -> 362 ;
363 [label="mse = 0.0\nsamples = 1\nvalue = 138771.0"] ;
362 -> 363 ;
364 [label="X[2] <= 34.5\nmse = 215521898.592\nsamples = 13\nvalue = 117122.846"] ;
362 -> 364 ;
365 [label="X[3] <= 30.5\nmse = 193952094.247\nsamples = 9\nvalue = 113562.444"] ;
364 -> 365 ;
366 [label="X[2] <= 31.5\nmse = 133930037.44\nsamples = 5\nvalue = 105142.6"] ;
365 -> 366 ;
367 [label="mse = 0.0\nsamples = 1\nvalue = 122875.0"] ;
366 -> 367 ;
368 [label="X[2] <= 33.5\nmse = 69150668.75\nsamples = 4\nvalue = 100709.5"] ;
366 -> 368 ;
369 [label="X[2] <= 32.5\nmse = 71616522.667\nsamples = 3\nvalue = 102978.0"] ;
368 -> 369 ;
370 [label="mse = 107412496.0\nsamples = 2\nvalue = 102914.0"] ;
369 -> 370 ;
371 [label="mse = 0.0\nsamples = 1\nvalue = 103106.0"] ;
369 -> 371 ;
372 [label="mse = 0.0\nsamples = 1\nvalue = 93904.0"] ;
368 -> 372 ;
373 [label="X[2] <= 31.5\nmse = 69590907.688\nsamples = 4\nvalue = 124087.25"] ;
365 -> 373 ;
374 [label="mse = 0.0\nsamples = 1\nvalue = 126000.0"] ;
373 -> 374 ;
375 [label="X[3] <= 31.5\nmse = 91161826.889\nsamples = 3\nvalue = 123449.667"] ;
373 -> 375 ;
376 [label="mse = 136188900.0\nsamples = 2\nvalue = 123020.0"] ;
375 -> 376 ;
377 [label="mse = 0.0\nsamples = 1\nvalue = 124309.0"] ;
375 -> 377 ;
378 [label="X[3] <= 30.5\nmse = 171357342.188\nsamples = 4\nvalue = 125133.75"] ;
364 -> 378 ;
379 [label="X[2] <= 35.5\nmse = 2030625.0\nsamples = 2\nvalue = 133375.0"] ;
378 -> 379 ;
380 [label="mse = 0.0\nsamples = 1\nvalue = 131950.0"] ;
379 -> 380 ;
381 [label="mse = 0.0\nsamples = 1\nvalue = 134800.0"] ;
379 -> 381 ;
382 [label="X[2] <= 38.0\nmse = 204847656.25\nsamples = 2\nvalue = 116892.5"] ;
378 -> 382 ;
383 [label="mse = 0.0\nsamples = 1\nvalue = 102580.0"] ;
382 -> 383 ;
384 [label="mse = 0.0\nsamples = 1\nvalue = 131205.0"] ;
382 -> 384 ;
385 [label="X[4] <= 0.5\nmse = 173815562.222\nsamples = 12\nvalue = 105375.333"] ;
361 -> 385 ;
386 [label="mse = 0.0\nsamples = 1\nvalue = 137000.0"] ;
385 -> 386 ;
387 [label="X[3] <= 35.5\nmse = 90431567.868\nsamples = 11\nvalue = 102500.364"] ;
385 -> 387 ;
388 [label="X[2] <= 38.5\nmse = 42882712.4\nsamples = 5\nvalue = 99582.0"] ;
387 -> 388 ;
389 [label="X[3] <= 34.5\nmse = 34945100.188\nsamples = 4\nvalue = 97650.25"] ;
388 -> 389 ;
390 [label="mse = 0.0\nsamples = 1\nvalue = 103450.0"] ;
389 -> 390 ;
391 [label="X[2] <= 37.5\nmse = 31643644.667\nsamples = 3\nvalue = 95717.0"] ;
389 -> 391 ;
392 [label="X[2] <= 36.0\nmse = 456300.25\nsamples = 2\nvalue = 99675.5"] ;
391 -> 392 ;
393 [label="mse = 0.0\nsamples = 1\nvalue = 100351.0"] ;
392 -> 393 ;
394 [label="mse = 0.0\nsamples = 1\nvalue = 99000.0"] ;
392 -> 394 ;
395 [label="mse = 0.0\nsamples = 1\nvalue = 87800.0"] ;
391 -> 395 ;
396 [label="mse = 0.0\nsamples = 1\nvalue = 107309.0"] ;
388 -> 396 ;
397 [label="X[2] <= 38.5\nmse = 117043765.556\nsamples = 6\nvalue = 104932.333"] ;
387 -> 397 ;
398 [label="X[3] <= 36.5\nmse = 57433420.222\nsamples = 3\nvalue = 108776.333"] ;
397 -> 398 ;
399 [label="mse = 0.0\nsamples = 1\nvalue = 119450.0"] ;
398 -> 399 ;
400 [label="X[2] <= 37.5\nmse = 704760.25\nsamples = 2\nvalue = 103439.5"] ;
398 -> 400 ;
401 [label="mse = 0.0\nsamples = 1\nvalue = 104279.0"] ;
400 -> 401 ;
402 [label="mse = 0.0\nsamples = 1\nvalue = 102600.0"] ;
400 -> 402 ;
403 [label="X[2] <= 39.5\nmse = 147101438.889\nsamples = 3\nvalue = 101088.333"] ;
397 -> 403 ;
404 [label="mse = 209019306.25\nsamples = 2\nvalue = 103057.5"] ;
403 -> 404 ;
405 [label="mse = 0.0\nsamples = 1\nvalue = 97150.0"] ;
403 -> 405 ;
406 [label="X[2] <= 42.5\nmse = 322551311.667\nsamples = 6\nvalue = 129061.0"] ;
360 -> 406 ;
407 [label="X[2] <= 38.5\nmse = 198565424.0\nsamples = 5\nvalue = 134666.0"] ;
406 -> 407 ;
408 [label="mse = 0.0\nsamples = 1\nvalue = 150680.0"] ;
407 -> 408 ;
409 [label="X[2] <= 40.5\nmse = 168066718.75\nsamples = 4\nvalue = 130662.5"] ;
407 -> 409 ;
410 [label="X[3] <= 38.5\nmse = 153668888.889\nsamples = 3\nvalue = 126466.667"] ;
409 -> 410 ;
411 [label="mse = 1690000.0\nsamples = 2\nvalue = 135200.0"] ;
410 -> 411 ;
412 [label="mse = 0.0\nsamples = 1\nvalue = 109000.0"] ;
410 -> 412 ;
413 [label="mse = 0.0\nsamples = 1\nvalue = 143250.0"] ;
409 -> 413 ;
414 [label="mse = 0.0\nsamples = 1\nvalue = 101036.0"] ;
406 -> 414 ;
415 [label="mse = 0.0\nsamples = 1\nvalue = 77202.0"] ;
359 -> 415 ;
416 [label="X[3] <= 43.5\nmse = 1194358831.633\nsamples = 7\nvalue = 137500.714"] ;
358 -> 416 ;
417 [label="X[2] <= 44.0\nmse = 710608050.0\nsamples = 3\nvalue = 168435.0"] ;
416 -> 417 ;
418 [label="mse = 947408400.0\nsamples = 2\nvalue = 174720.0"] ;
417 -> 418 ;
419 [label="mse = 0.0\nsamples = 1\nvalue = 155865.0"] ;
417 -> 419 ;
420 [label="X[3] <= 44.5\nmse = 301201250.0\nsamples = 4\nvalue = 114300.0"] ;
416 -> 420 ;
421 [label="X[2] <= 45.0\nmse = 381225625.0\nsamples = 2\nvalue = 124525.0"] ;
420 -> 421 ;
422 [label="mse = 0.0\nsamples = 1\nvalue = 105000.0"] ;
421 -> 422 ;
423 [label="mse = 0.0\nsamples = 1\nvalue = 144050.0"] ;
421 -> 423 ;
424 [label="X[2] <= 45.5\nmse = 12075625.0\nsamples = 2\nvalue = 104075.0"] ;
420 -> 424 ;
425 [label="mse = 0.0\nsamples = 1\nvalue = 107550.0"] ;
424 -> 425 ;
426 [label="mse = 0.0\nsamples = 1\nvalue = 100600.0"] ;
424 -> 426 ;
427 [label="X[3] <= 48.5\nmse = 208295188.857\nsamples = 7\nvalue = 81523.0"] ;
201 -> 427 ;
428 [label="X[3] <= 46.0\nmse = 152443302.688\nsamples = 4\nvalue = 89464.75"] ;
427 -> 428 ;
429 [label="X[3] <= 43.5\nmse = 63462584.667\nsamples = 3\nvalue = 83553.0"] ;
428 -> 429 ;
430 [label="X[3] <= 41.5\nmse = 67313820.25\nsamples = 2\nvalue = 80504.5"] ;
429 -> 430 ;
431 [label="mse = 0.0\nsamples = 1\nvalue = 88709.0"] ;
430 -> 431 ;
432 [label="mse = 0.0\nsamples = 1\nvalue = 72300.0"] ;
430 -> 432 ;
433 [label="mse = 0.0\nsamples = 1\nvalue = 89650.0"] ;
429 -> 433 ;
434 [label="mse = 0.0\nsamples = 1\nvalue = 107200.0"] ;
428 -> 434 ;
435 [label="X[2] <= 52.5\nmse = 86542258.667\nsamples = 3\nvalue = 70934.0"] ;
427 -> 435 ;
436 [label="mse = 0.0\nsamples = 1\nvalue = 57800.0"] ;
435 -> 436 ;
437 [label="X[2] <= 55.0\nmse = 436921.0\nsamples = 2\nvalue = 77501.0"] ;
435 -> 437 ;
438 [label="mse = 0.0\nsamples = 1\nvalue = 78162.0"] ;
437 -> 438 ;
439 [label="mse = 0.0\nsamples = 1\nvalue = 76840.0"] ;
437 -> 439 ;
440 [label="X[2] <= 47.5\nmse = 666346385.992\nsamples = 135\nvalue = 133393.756"] ;
200 -> 440 ;
441 [label="X[2] <= 45.5\nmse = 628029888.308\nsamples = 133\nvalue = 132548.451"] ;
440 -> 441 ;
442 [label="X[2] <= 21.5\nmse = 600548099.996\nsamples = 132\nvalue = 133040.795"] ;
441 -> 442 ;
443 [label="X[3] <= 10.5\nmse = 368331618.406\nsamples = 54\nvalue = 128804.963"] ;
442 -> 443 ;
444 [label="X[3] <= 7.5\nmse = 328572428.482\nsamples = 19\nvalue = 122994.789"] ;
443 -> 444 ;
445 [label="X[2] <= 20.5\nmse = 345497438.29\nsamples = 10\nvalue = 134027.1"] ;
444 -> 445 ;
446 [label="X[2] <= 15.5\nmse = 210440632.617\nsamples = 9\nvalue = 138191.778"] ;
445 -> 446 ;
447 [label="X[2] <= 12.5\nmse = 31676816.889\nsamples = 3\nvalue = 125075.333"] ;
446 -> 447 ;
448 [label="mse = 0.0\nsamples = 1\nvalue = 117150.0"] ;
447 -> 448 ;
449 [label="X[2] <= 14.0\nmse = 407044.0\nsamples = 2\nvalue = 129038.0"] ;
447 -> 449 ;
450 [label="mse = 0.0\nsamples = 1\nvalue = 129676.0"] ;
449 -> 450 ;
451 [label="mse = 0.0\nsamples = 1\nvalue = 128400.0"] ;
449 -> 451 ;
452 [label="X[3] <= 4.5\nmse = 170791704.333\nsamples = 6\nvalue = 144750.0"] ;
446 -> 452 ;
453 [label="X[3] <= 2.5\nmse = 105659226.889\nsamples = 3\nvalue = 136353.667"] ;
452 -> 453 ;
454 [label="mse = 0.0\nsamples = 1\nvalue = 126320.0"] ;
453 -> 454 ;
455 [label="X[2] <= 18.5\nmse = 82982990.25\nsamples = 2\nvalue = 141370.5"] ;
453 -> 455 ;
456 [label="mse = 0.0\nsamples = 1\nvalue = 150480.0"] ;
455 -> 456 ;
457 [label="mse = 0.0\nsamples = 1\nvalue = 132261.0"] ;
455 -> 457 ;
458 [label="X[2] <= 18.5\nmse = 94927354.889\nsamples = 3\nvalue = 153146.333"] ;
452 -> 458 ;
459 [label="X[2] <= 17.0\nmse = 37008972.25\nsamples = 2\nvalue = 147219.5"] ;
458 -> 459 ;
460 [label="mse = 0.0\nsamples = 1\nvalue = 153303.0"] ;
459 -> 460 ;
461 [label="mse = 0.0\nsamples = 1\nvalue = 141136.0"] ;
459 -> 461 ;
462 [label="mse = 0.0\nsamples = 1\nvalue = 165000.0"] ;
458 -> 462 ;
463 [label="mse = 0.0\nsamples = 1\nvalue = 96545.0"] ;
445 -> 463 ;
464 [label="X[2] <= 14.0\nmse = 24269870.0\nsamples = 9\nvalue = 110736.667"] ;
444 -> 464 ;
465 [label="X[2] <= 12.5\nmse = 233772.25\nsamples = 2\nvalue = 117739.5"] ;
464 -> 465 ;
466 [label="mse = 0.0\nsamples = 1\nvalue = 118223.0"] ;
465 -> 466 ;
467 [label="mse = 0.0\nsamples = 1\nvalue = 117256.0"] ;
465 -> 467 ;
468 [label="X[2] <= 19.0\nmse = 13122752.122\nsamples = 7\nvalue = 108735.857"] ;
464 -> 468 ;
469 [label="X[4] <= 0.5\nmse = 927465.188\nsamples = 4\nvalue = 106893.75"] ;
468 -> 469 ;
470 [label="mse = 0.0\nsamples = 1\nvalue = 105450.0"] ;
469 -> 470 ;
471 [label="X[3] <= 9.5\nmse = 310214.0\nsamples = 3\nvalue = 107375.0"] ;
469 -> 471 ;
472 [label="mse = 0.0\nsamples = 1\nvalue = 106639.0"] ;
471 -> 472 ;
473 [label="X[2] <= 16.5\nmse = 59049.0\nsamples = 2\nvalue = 107743.0"] ;
471 -> 473 ;
474 [label="mse = 0.0\nsamples = 1\nvalue = 107986.0"] ;
473 -> 474 ;
475 [label="mse = 0.0\nsamples = 1\nvalue = 107500.0"] ;
473 -> 475 ;
476 [label="X[2] <= 20.5\nmse = 18826018.667\nsamples = 3\nvalue = 111192.0"] ;
468 -> 476 ;
477 [label="mse = 0.0\nsamples = 1\nvalue = 116518.0"] ;
476 -> 477 ;
478 [label="X[3] <= 8.5\nmse = 6964321.0\nsamples = 2\nvalue = 108529.0"] ;
476 -> 478 ;
479 [label="mse = 0.0\nsamples = 1\nvalue = 105890.0"] ;
478 -> 479 ;
480 [label="mse = 0.0\nsamples = 1\nvalue = 111168.0"] ;
478 -> 480 ;
481 [label="X[3] <= 16.5\nmse = 361641034.168\nsamples = 35\nvalue = 131959.057"] ;
443 -> 481 ;
482 [label="X[2] <= 14.5\nmse = 294412047.309\nsamples = 16\nvalue = 136545.062"] ;
481 -> 482 ;
483 [label="X[3] <= 11.5\nmse = 226256473.139\nsamples = 6\nvalue = 125036.833"] ;
482 -> 483 ;
484 [label="X[2] <= 11.5\nmse = 204056310.688\nsamples = 4\nvalue = 119268.25"] ;
483 -> 484 ;
485 [label="mse = 0.0\nsamples = 1\nvalue = 142467.0"] ;
484 -> 485 ;
486 [label="X[2] <= 12.5\nmse = 32883080.222\nsamples = 3\nvalue = 111535.333"] ;
484 -> 486 ;
487 [label="mse = 0.0\nsamples = 1\nvalue = 108875.0"] ;
486 -> 487 ;
488 [label="mse = 44016590.25\nsamples = 2\nvalue = 112865.5"] ;
486 -> 488 ;
489 [label="X[2] <= 13.5\nmse = 70997476.0\nsamples = 2\nvalue = 136574.0"] ;
483 -> 489 ;
490 [label="mse = 0.0\nsamples = 1\nvalue = 145000.0"] ;
489 -> 490 ;
491 [label="mse = 0.0\nsamples = 1\nvalue = 128148.0"] ;
489 -> 491 ;
492 [label="X[3] <= 15.5\nmse = 208163626.8\nsamples = 10\nvalue = 143450.0"] ;
482 -> 492 ;
493 [label="X[3] <= 12.5\nmse = 52296087.76\nsamples = 5\nvalue = 137342.8"] ;
492 -> 493 ;
494 [label="X[2] <= 15.5\nmse = 105625.0\nsamples = 2\nvalue = 145675.0"] ;
493 -> 494 ;
495 [label="mse = 0.0\nsamples = 1\nvalue = 146000.0"] ;
494 -> 495 ;
496 [label="mse = 0.0\nsamples = 1\nvalue = 145350.0"] ;
494 -> 496 ;
497 [label="X[4] <= 0.5\nmse = 9950222.0\nsamples = 3\nvalue = 131788.0"] ;
493 -> 497 ;
498 [label="mse = 0.0\nsamples = 1\nvalue = 127512.0"] ;
497 -> 498 ;
499 [label="X[2] <= 15.5\nmse = 1212201.0\nsamples = 2\nvalue = 133926.0"] ;
497 -> 499 ;
500 [label="mse = 0.0\nsamples = 1\nvalue = 132825.0"] ;
499 -> 500 ;
501 [label="mse = 0.0\nsamples = 1\nvalue = 135027.0"] ;
499 -> 501 ;
502 [label="X[2] <= 18.5\nmse = 289435382.16\nsamples = 5\nvalue = 149557.2"] ;
492 -> 502 ;
503 [label="X[2] <= 16.5\nmse = 187112355.25\nsamples = 4\nvalue = 143646.5"] ;
502 -> 503 ;
504 [label="X[2] <= 15.5\nmse = 220599681.556\nsamples = 3\nvalue = 146333.667"] ;
503 -> 504 ;
505 [label="mse = 0.0\nsamples = 1\nvalue = 137167.0"] ;
504 -> 505 ;
506 [label="mse = 267878689.0\nsamples = 2\nvalue = 150917.0"] ;
504 -> 506 ;
507 [label="mse = 0.0\nsamples = 1\nvalue = 135585.0"] ;
503 -> 507 ;
508 [label="mse = 0.0\nsamples = 1\nvalue = 173200.0"] ;
502 -> 508 ;
509 [label="X[3] <= 20.5\nmse = 385629961.396\nsamples = 19\nvalue = 128097.158"] ;
481 -> 509 ;
510 [label="X[4] <= 0.5\nmse = 319096445.045\nsamples = 17\nvalue = 126169.118"] ;
509 -> 510 ;
511 [label="X[2] <= 17.5\nmse = 41313356.0\nsamples = 4\nvalue = 121946.0"] ;
510 -> 511 ;
512 [label="X[3] <= 17.5\nmse = 32969400.889\nsamples = 3\nvalue = 119594.667"] ;
511 -> 512 ;
513 [label="mse = 40960000.0\nsamples = 2\nvalue = 117912.0"] ;
512 -> 513 ;
514 [label="mse = 0.0\nsamples = 1\nvalue = 122960.0"] ;
512 -> 514 ;
515 [label="mse = 0.0\nsamples = 1\nvalue = 129000.0"] ;
511 -> 515 ;
516 [label="X[3] <= 17.5\nmse = 397392063.325\nsamples = 13\nvalue = 127468.538"] ;
510 -> 516 ;
517 [label="mse = 0.0\nsamples = 1\nvalue = 152500.0"] ;
516 -> 517 ;
518 [label="X[2] <= 19.5\nmse = 373942354.243\nsamples = 12\nvalue = 125382.583"] ;
516 -> 518 ;
519 [label="X[3] <= 19.5\nmse = 352597481.837\nsamples = 7\nvalue = 122781.857"] ;
518 -> 519 ;
520 [label="X[3] <= 18.5\nmse = 319109698.139\nsamples = 6\nvalue = 126412.167"] ;
519 -> 520 ;
521 [label="X[2] <= 18.5\nmse = 78443888.889\nsamples = 3\nvalue = 127283.333"] ;
520 -> 521 ;
522 [label="mse = 0.0\nsamples = 1\nvalue = 120000.0"] ;
521 -> 522 ;
523 [label="mse = 77880625.0\nsamples = 2\nvalue = 130925.0"] ;
521 -> 523 ;
524 [label="X[2] <= 18.5\nmse = 558257644.667\nsamples = 3\nvalue = 125541.0"] ;
520 -> 524 ;
525 [label="mse = 0.0\nsamples = 1\nvalue = 130664.0"] ;
524 -> 525 ;
526 [label="mse = 817702620.25\nsamples = 2\nvalue = 122979.5"] ;
524 -> 526 ;
527 [label="mse = 0.0\nsamples = 1\nvalue = 101000.0"] ;
519 -> 527 ;
528 [label="X[3] <= 19.0\nmse = 381098885.84\nsamples = 5\nvalue = 129023.6"] ;
518 -> 528 ;
529 [label="mse = 0.0\nsamples = 1\nvalue = 104800.0"] ;
528 -> 529 ;
530 [label="X[2] <= 20.5\nmse = 293003983.25\nsamples = 4\nvalue = 135079.5"] ;
528 -> 530 ;
531 [label="mse = 210467556.25\nsamples = 2\nvalue = 148692.5"] ;
530 -> 531 ;
532 [label="mse = 4912872.25\nsamples = 2\nvalue = 121466.5"] ;
530 -> 532 ;
533 [label="mse = 650989710.25\nsamples = 2\nvalue = 144485.5"] ;
509 -> 533 ;
534 [label="X[2] <= 27.5\nmse = 740292227.336\nsamples = 78\nvalue = 135973.295"] ;
442 -> 534 ;
535 [label="X[2] <= 24.5\nmse = 564187070.178\nsamples = 29\nvalue = 143560.552"] ;
534 -> 535 ;
536 [label="X[3] <= 22.0\nmse = 527729817.25\nsamples = 14\nvalue = 136184.5"] ;
535 -> 536 ;
537 [label="X[3] <= 9.5\nmse = 428649444.446\nsamples = 11\nvalue = 142397.909"] ;
536 -> 537 ;
538 [label="X[2] <= 22.5\nmse = 280562500.0\nsamples = 2\nvalue = 163250.0"] ;
537 -> 538 ;
539 [label="mse = 0.0\nsamples = 1\nvalue = 180000.0"] ;
538 -> 539 ;
540 [label="mse = 0.0\nsamples = 1\nvalue = 146500.0"] ;
538 -> 540 ;
541 [label="X[4] <= 0.5\nmse = 343461193.877\nsamples = 9\nvalue = 137764.111"] ;
537 -> 541 ;
542 [label="X[3] <= 17.0\nmse = 21776222.25\nsamples = 2\nvalue = 156434.5"] ;
541 -> 542 ;
543 [label="mse = 0.0\nsamples = 1\nvalue = 161101.0"] ;
542 -> 543 ;
544 [label="mse = 0.0\nsamples = 1\nvalue = 151768.0"] ;
542 -> 544 ;
545 [label="X[3] <= 17.5\nmse = 307320133.061\nsamples = 7\nvalue = 132429.714"] ;
541 -> 545 ;
546 [label="X[2] <= 22.5\nmse = 326185554.667\nsamples = 3\nvalue = 123638.0"] ;
545 -> 546 ;
547 [label="mse = 0.0\nsamples = 1\nvalue = 101000.0"] ;
546 -> 547 ;
548 [label="X[3] <= 12.5\nmse = 104919049.0\nsamples = 2\nvalue = 134957.0"] ;
546 -> 548 ;
549 [label="mse = 0.0\nsamples = 1\nvalue = 145200.0"] ;
548 -> 549 ;
550 [label="mse = 0.0\nsamples = 1\nvalue = 124714.0"] ;
548 -> 550 ;
551 [label="X[2] <= 22.5\nmse = 191722376.75\nsamples = 4\nvalue = 139023.5"] ;
545 -> 551 ;
552 [label="X[3] <= 20.5\nmse = 53620466.667\nsamples = 3\nvalue = 146130.0"] ;
551 -> 552 ;
553 [label="mse = 11022400.0\nsamples = 2\nvalue = 141320.0"] ;
552 -> 553 ;
554 [label="mse = 0.0\nsamples = 1\nvalue = 155750.0"] ;
552 -> 554 ;
555 [label="mse = 0.0\nsamples = 1\nvalue = 117704.0"] ;
551 -> 555 ;
556 [label="X[2] <= 23.5\nmse = 230425218.667\nsamples = 3\nvalue = 113402.0"] ;
536 -> 556 ;
557 [label="mse = 285238321.0\nsamples = 2\nvalue = 117889.0"] ;
556 -> 557 ;
558 [label="mse = 0.0\nsamples = 1\nvalue = 104428.0"] ;
556 -> 558 ;
559 [label="X[3] <= 16.5\nmse = 500040984.249\nsamples = 15\nvalue = 150444.867"] ;
535 -> 559 ;
560 [label="X[3] <= 14.5\nmse = 265217510.25\nsamples = 2\nvalue = 131063.5"] ;
559 -> 560 ;
561 [label="mse = 0.0\nsamples = 1\nvalue = 147349.0"] ;
560 -> 561 ;
562 [label="mse = 0.0\nsamples = 1\nvalue = 114778.0"] ;
560 -> 562 ;
563 [label="X[3] <= 20.0\nmse = 469486481.929\nsamples = 13\nvalue = 153426.615"] ;
559 -> 563 ;
564 [label="X[3] <= 18.5\nmse = 561205715.84\nsamples = 5\nvalue = 166141.4"] ;
563 -> 564 ;
565 [label="mse = 0.0\nsamples = 1\nvalue = 181257.0"] ;
564 -> 565 ;
566 [label="X[2] <= 25.5\nmse = 630106718.75\nsamples = 4\nvalue = 162362.5"] ;
564 -> 566 ;
567 [label="mse = 0.0\nsamples = 1\nvalue = 153750.0"] ;
566 -> 567 ;
568 [label="mse = 807175555.556\nsamples = 3\nvalue = 165233.333"] ;
566 -> 568 ;
569 [label="X[3] <= 26.0\nmse = 247970185.609\nsamples = 8\nvalue = 145479.875"] ;
563 -> 569 ;
570 [label="X[4] <= 0.5\nmse = 151294195.0\nsamples = 4\nvalue = 151849.0"] ;
569 -> 570 ;
571 [label="mse = 0.0\nsamples = 1\nvalue = 140096.0"] ;
570 -> 571 ;
572 [label="X[3] <= 23.5\nmse = 140333144.889\nsamples = 3\nvalue = 155766.667"] ;
570 -> 572 ;
573 [label="X[3] <= 21.5\nmse = 6180196.0\nsamples = 2\nvalue = 147514.0"] ;
572 -> 573 ;
574 [label="mse = 0.0\nsamples = 1\nvalue = 145028.0"] ;
573 -> 574 ;
575 [label="mse = 0.0\nsamples = 1\nvalue = 150000.0"] ;
573 -> 575 ;
576 [label="mse = 0.0\nsamples = 1\nvalue = 172272.0"] ;
572 -> 576 ;
577 [label="X[3] <= 27.5\nmse = 263514669.688\nsamples = 4\nvalue = 139110.75"] ;
569 -> 577 ;
578 [label="X[2] <= 26.5\nmse = 339343202.667\nsamples = 3\nvalue = 137378.0"] ;
577 -> 578 ;
579 [label="mse = 0.0\nsamples = 1\nvalue = 142500.0"] ;
578 -> 579 ;
580 [label="mse = 489338641.0\nsamples = 2\nvalue = 134817.0"] ;
578 -> 580 ;
581 [label="mse = 0.0\nsamples = 1\nvalue = 144309.0"] ;
577 -> 581 ;
582 [label="X[3] <= 32.0\nmse = 790283931.209\nsamples = 49\nvalue = 131482.878"] ;
534 -> 582 ;
583 [label="X[2] <= 34.5\nmse = 482338869.25\nsamples = 30\nvalue = 126165.5"] ;
582 -> 583 ;
584 [label="X[2] <= 29.5\nmse = 502774556.984\nsamples = 16\nvalue = 131675.125"] ;
583 -> 584 ;
585 [label="X[3] <= 18.0\nmse = 311981254.0\nsamples = 7\nvalue = 122607.0"] ;
584 -> 585 ;
586 [label="mse = 0.0\nsamples = 1\nvalue = 160400.0"] ;
585 -> 586 ;
587 [label="X[2] <= 28.5\nmse = 86251020.139\nsamples = 6\nvalue = 116308.167"] ;
585 -> 587 ;
588 [label="X[3] <= 26.5\nmse = 40693051.04\nsamples = 5\nvalue = 119543.6"] ;
587 -> 588 ;
589 [label="X[3] <= 24.0\nmse = 46266884.222\nsamples = 3\nvalue = 117360.667"] ;
588 -> 589 ;
590 [label="mse = 45799056.25\nsamples = 2\nvalue = 120165.5"] ;
589 -> 590 ;
591 [label="mse = 0.0\nsamples = 1\nvalue = 111751.0"] ;
589 -> 591 ;
592 [label="mse = 14462809.0\nsamples = 2\nvalue = 122818.0"] ;
588 -> 592 ;
593 [label="mse = 0.0\nsamples = 1\nvalue = 100131.0"] ;
587 -> 593 ;
594 [label="X[3] <= 16.5\nmse = 537467375.432\nsamples = 9\nvalue = 138728.111"] ;
584 -> 594 ;
595 [label="mse = 0.0\nsamples = 1\nvalue = 102235.0"] ;
594 -> 595 ;
596 [label="X[2] <= 31.5\nmse = 417373853.188\nsamples = 8\nvalue = 143289.75"] ;
594 -> 596 ;
597 [label="X[3] <= 27.0\nmse = 36492264.667\nsamples = 3\nvalue = 166457.0"] ;
596 -> 597 ;
598 [label="mse = 0.0\nsamples = 1\nvalue = 175000.0"] ;
597 -> 598 ;
599 [label="X[2] <= 30.5\nmse = 1260.25\nsamples = 2\nvalue = 162185.5"] ;
597 -> 599 ;
600 [label="mse = 0.0\nsamples = 1\nvalue = 162221.0"] ;
599 -> 600 ;
601 [label="mse = 0.0\nsamples = 1\nvalue = 162150.0"] ;
599 -> 601 ;
602 [label="X[3] <= 30.5\nmse = 130650192.64\nsamples = 5\nvalue = 129389.4"] ;
596 -> 602 ;
603 [label="X[3] <= 19.5\nmse = 43208834.75\nsamples = 4\nvalue = 134290.5"] ;
602 -> 603 ;
604 [label="mse = 0.0\nsamples = 1\nvalue = 145098.0"] ;
603 -> 604 ;
605 [label="X[3] <= 27.5\nmse = 5699754.667\nsamples = 3\nvalue = 130688.0"] ;
603 -> 605 ;
606 [label="X[3] <= 22.5\nmse = 322624.0\nsamples = 2\nvalue = 129032.0"] ;
605 -> 606 ;
607 [label="mse = 0.0\nsamples = 1\nvalue = 129600.0"] ;
606 -> 607 ;
608 [label="mse = 0.0\nsamples = 1\nvalue = 128464.0"] ;
606 -> 608 ;
609 [label="mse = 0.0\nsamples = 1\nvalue = 134000.0"] ;
605 -> 609 ;
610 [label="mse = 0.0\nsamples = 1\nvalue = 109785.0"] ;
602 -> 610 ;
611 [label="X[2] <= 40.5\nmse = 384642652.311\nsamples = 14\nvalue = 119868.786"] ;
583 -> 611 ;
612 [label="X[4] <= 0.5\nmse = 339374576.984\nsamples = 8\nvalue = 110824.375"] ;
611 -> 612 ;
613 [label="mse = 0.0\nsamples = 1\nvalue = 144651.0"] ;
612 -> 613 ;
614 [label="X[3] <= 18.5\nmse = 201041874.286\nsamples = 7\nvalue = 105992.0"] ;
612 -> 614 ;
615 [label="mse = 0.0\nsamples = 1\nvalue = 137317.0"] ;
614 -> 615 ;
616 [label="X[3] <= 22.5\nmse = 43749148.472\nsamples = 6\nvalue = 100771.167"] ;
614 -> 616 ;
617 [label="mse = 0.0\nsamples = 1\nvalue = 114500.0"] ;
616 -> 617 ;
618 [label="X[3] <= 25.5\nmse = 7263570.64\nsamples = 5\nvalue = 98025.4"] ;
616 -> 618 ;
619 [label="X[3] <= 23.5\nmse = 5975580.25\nsamples = 2\nvalue = 95608.5"] ;
618 -> 619 ;
620 [label="mse = 0.0\nsamples = 1\nvalue = 98053.0"] ;
619 -> 620 ;
621 [label="mse = 0.0\nsamples = 1\nvalue = 93164.0"] ;
619 -> 621 ;
622 [label="X[3] <= 27.5\nmse = 1631780.222\nsamples = 3\nvalue = 99636.667"] ;
618 -> 622 ;
623 [label="mse = 0.0\nsamples = 1\nvalue = 101299.0"] ;
622 -> 623 ;
624 [label="X[3] <= 29.5\nmse = 375156.25\nsamples = 2\nvalue = 98805.5"] ;
622 -> 624 ;
625 [label="mse = 0.0\nsamples = 1\nvalue = 98193.0"] ;
624 -> 625 ;
626 [label="mse = 0.0\nsamples = 1\nvalue = 99418.0"] ;
624 -> 626 ;
627 [label="X[3] <= 26.5\nmse = 190506950.0\nsamples = 6\nvalue = 131928.0"] ;
611 -> 627 ;
628 [label="X[3] <= 25.5\nmse = 159284688.222\nsamples = 3\nvalue = 124535.333"] ;
627 -> 628 ;
629 [label="X[3] <= 23.5\nmse = 58322.25\nsamples = 2\nvalue = 133458.5"] ;
628 -> 629 ;
630 [label="mse = 0.0\nsamples = 1\nvalue = 133700.0"] ;
629 -> 630 ;
631 [label="mse = 0.0\nsamples = 1\nvalue = 133217.0"] ;
629 -> 631 ;
632 [label="mse = 0.0\nsamples = 1\nvalue = 106689.0"] ;
628 -> 632 ;
633 [label="X[3] <= 29.5\nmse = 112426170.889\nsamples = 3\nvalue = 139320.667"] ;
627 -> 633 ;
634 [label="X[2] <= 42.0\nmse = 19009600.0\nsamples = 2\nvalue = 146383.0"] ;
633 -> 634 ;
635 [label="mse = 0.0\nsamples = 1\nvalue = 142023.0"] ;
634 -> 635 ;
636 [label="mse = 0.0\nsamples = 1\nvalue = 150743.0"] ;
634 -> 636 ;
637 [label="mse = 0.0\nsamples = 1\nvalue = 125196.0"] ;
633 -> 637 ;
638 [label="X[2] <= 30.0\nmse = 1161378569.457\nsamples = 19\nvalue = 139878.737"] ;
582 -> 638 ;
639 [label="mse = 0.0\nsamples = 1\nvalue = 91412.0"] ;
638 -> 639 ;
640 [label="X[2] <= 38.5\nmse = 1088148159.667\nsamples = 18\nvalue = 142571.333"] ;
638 -> 640 ;
641 [label="X[3] <= 33.5\nmse = 1489069866.0\nsamples = 11\nvalue = 150533.0"] ;
640 -> 641 ;
642 [label="X[2] <= 34.5\nmse = 185082420.25\nsamples = 2\nvalue = 175804.5"] ;
641 -> 642 ;
643 [label="mse = 0.0\nsamples = 1\nvalue = 189409.0"] ;
642 -> 643 ;
644 [label="mse = 0.0\nsamples = 1\nvalue = 162200.0"] ;
642 -> 644 ;
645 [label="X[3] <= 34.5\nmse = 1605384709.877\nsamples = 9\nvalue = 144917.111"] ;
641 -> 645 ;
646 [label="mse = 0.0\nsamples = 1\nvalue = 92391.0"] ;
645 -> 646 ;
647 [label="X[2] <= 34.0\nmse = 1418074499.609\nsamples = 8\nvalue = 151482.875"] ;
645 -> 647 ;
648 [label="mse = 0.0\nsamples = 1\nvalue = 150376.0"] ;
647 -> 648 ;
649 [label="X[3] <= 37.5\nmse = 1620456542.857\nsamples = 7\nvalue = 151641.0"] ;
647 -> 649 ;
650 [label="mse = 279841.0\nsamples = 2\nvalue = 152179.0"] ;
649 -> 650 ;
651 [label="X[2] <= 37.0\nmse = 2268365134.96\nsamples = 5\nvalue = 151425.8"] ;
649 -> 651 ;
652 [label="mse = 0.0\nsamples = 1\nvalue = 151445.0"] ;
651 -> 652 ;
653 [label="mse = 2835456303.5\nsamples = 4\nvalue = 151421.0"] ;
651 -> 653 ;
654 [label="X[3] <= 40.5\nmse = 201988520.122\nsamples = 7\nvalue = 130060.143"] ;
640 -> 654 ;
655 [label="X[3] <= 36.0\nmse = 39963125.0\nsamples = 4\nvalue = 118575.0"] ;
654 -> 655 ;
656 [label="mse = 0.0\nsamples = 1\nvalue = 128250.0"] ;
655 -> 656 ;
657 [label="X[3] <= 39.5\nmse = 11681666.667\nsamples = 3\nvalue = 115350.0"] ;
655 -> 657 ;
658 [label="X[2] <= 42.0\nmse = 3330625.0\nsamples = 2\nvalue = 113175.0"] ;
657 -> 658 ;
659 [label="mse = 0.0\nsamples = 1\nvalue = 111350.0"] ;
658 -> 659 ;
660 [label="mse = 0.0\nsamples = 1\nvalue = 115000.0"] ;
658 -> 660 ;
661 [label="mse = 0.0\nsamples = 1\nvalue = 119700.0"] ;
657 -> 661 ;
662 [label="X[3] <= 43.0\nmse = 7640360.222\nsamples = 3\nvalue = 145373.667"] ;
654 -> 662 ;
663 [label="mse = 0.0\nsamples = 1\nvalue = 141500.0"] ;
662 -> 663 ;
664 [label="mse = 206570.25\nsamples = 2\nvalue = 147310.5"] ;
662 -> 664 ;
665 [label="mse = 0.0\nsamples = 1\nvalue = 67559.0"] ;
441 -> 665 ;
666 [label="X[3] <= 54.5\nmse = 7003962.25\nsamples = 2\nvalue = 189606.5"] ;
440 -> 666 ;
667 [label="mse = 0.0\nsamples = 1\nvalue = 186960.0"] ;
666 -> 667 ;
668 [label="mse = 0.0\nsamples = 1\nvalue = 192253.0"] ;
666 -> 668 ;
}